digraph Tree {
node [shape=box, style="filled, rounded", color="black", fontname="helvetica"] ;
edge [fontname="helvetica"] ;
0 [label=<x<SUB>1</SUB> &le; 830.5<br/>entropy = 1.0<br/>samples = 1000<br/>value = [511, 489]>, fillcolor="#fefaf6"] ;
1 [label=<x<SUB>2</SUB> &le; -0.887<br/>entropy = 0.998<br/>samples = 845<br/>value = [447, 398]>, fillcolor="#fcf1e9"] ;
0 -> 1 [labeldistance=2.5, labelangle=45, headlabel="True"] ;
2 [label=<x<SUB>0</SUB> &le; 74.5<br/>entropy = 0.987<br/>samples = 132<br/>value = [57, 75]>, fillcolor="#cfe7f9"] ;
1 -> 2 ;
3 [label=<entropy = 0.0<br/>samples = 6<br/>value = [0, 6]>, fillcolor="#399de5"] ;
2 -> 3 ;
4 [label=<x<SUB>0</SUB> &le; 202.0<br/>entropy = 0.993<br/>samples = 126<br/>value = [57, 69]>, fillcolor="#ddeefa"] ;
2 -> 4 ;
5 [label=<x<SUB>1</SUB> &le; 168.5<br/>entropy = 0.831<br/>samples = 19<br/>value = [14, 5]>, fillcolor="#eeae80"] ;
4 -> 5 ;
6 [label=<entropy = 0.0<br/>samples = 6<br/>value = [6, 0]>, fillcolor="#e58139"] ;
5 -> 6 ;
7 [label=<entropy = 0.961<br/>samples = 13<br/>value = [8, 5]>, fillcolor="#f5d0b5"] ;
5 -> 7 ;
8 [label=<x<SUB>1</SUB> &le; 804.5<br/>entropy = 0.972<br/>samples = 107<br/>value = [43, 64]>, fillcolor="#bedff6"] ;
4 -> 8 ;
9 [label=<entropy = 0.961<br/>samples = 104<br/>value = [40, 64]>, fillcolor="#b5daf5"] ;
8 -> 9 ;
10 [label=<entropy = 0.0<br/>samples = 3<br/>value = [3, 0]>, fillcolor="#e58139"] ;
8 -> 10 ;
11 [label=<x<SUB>2</SUB> &le; -0.623<br/>entropy = 0.994<br/>samples = 713<br/>value = [390, 323]>, fillcolor="#fbe9dd"] ;
1 -> 11 ;
12 [label=<x<SUB>2</SUB> &le; -0.676<br/>entropy = 0.903<br/>samples = 69<br/>value = [47, 22]>, fillcolor="#f1bc96"] ;
11 -> 12 ;
13 [label=<entropy = 0.948<br/>samples = 60<br/>value = [38, 22]>, fillcolor="#f4caac"] ;
12 -> 13 ;
14 [label=<entropy = 0.0<br/>samples = 9<br/>value = [9, 0]>, fillcolor="#e58139"] ;
12 -> 14 ;
15 [label=<x<SUB>0</SUB> &le; 58.5<br/>entropy = 0.997<br/>samples = 644<br/>value = [343, 301]>, fillcolor="#fcf0e7"] ;
11 -> 15 ;
16 [label=<x<SUB>0</SUB> &le; 49.5<br/>entropy = 0.904<br/>samples = 25<br/>value = [8, 17]>, fillcolor="#96cbf1"] ;
15 -> 16 ;
17 [label=<entropy = 0.971<br/>samples = 20<br/>value = [8, 12]>, fillcolor="#bddef6"] ;
16 -> 17 ;
18 [label=<entropy = 0.0<br/>samples = 5<br/>value = [0, 5]>, fillcolor="#399de5"] ;
16 -> 18 ;
19 [label=<x<SUB>0</SUB> &le; 63.5<br/>entropy = 0.995<br/>samples = 619<br/>value = [335, 284]>, fillcolor="#fbece1"] ;
15 -> 19 ;
20 [label=<entropy = 0.0<br/>samples = 4<br/>value = [4, 0]>, fillcolor="#e58139"] ;
19 -> 20 ;
21 [label=<entropy = 0.996<br/>samples = 615<br/>value = [331, 284]>, fillcolor="#fbede3"] ;
19 -> 21 ;
22 [label=<x<SUB>1</SUB> &le; 934.0<br/>entropy = 0.978<br/>samples = 155<br/>value = [64, 91]>, fillcolor="#c4e2f7"] ;
0 -> 22 [labeldistance=2.5, labelangle=-45, headlabel="False"] ;
23 [label=<x<SUB>2</SUB> &le; -1.759<br/>entropy = 0.915<br/>samples = 91<br/>value = [30, 61]>, fillcolor="#9acdf2"] ;
22 -> 23 ;
24 [label=<entropy = 0.0<br/>samples = 6<br/>value = [0, 6]>, fillcolor="#399de5"] ;
23 -> 24 ;
25 [label=<x<SUB>2</SUB> &le; -1.515<br/>entropy = 0.937<br/>samples = 85<br/>value = [30, 55]>, fillcolor="#a5d2f3"] ;
23 -> 25 ;
26 [label=<entropy = 0.0<br/>samples = 2<br/>value = [2, 0]>, fillcolor="#e58139"] ;
25 -> 26 ;
27 [label=<x<SUB>2</SUB> &le; -0.75<br/>entropy = 0.922<br/>samples = 83<br/>value = [28, 55]>, fillcolor="#9ecff2"] ;
25 -> 27 ;
28 [label=<x<SUB>0</SUB> &le; 879.5<br/>entropy = 0.414<br/>samples = 12<br/>value = [1, 11]>, fillcolor="#4ba6e7"] ;
27 -> 28 ;
29 [label=<entropy = 0.0<br/>samples = 11<br/>value = [0, 11]>, fillcolor="#399de5"] ;
28 -> 29 ;
30 [label=<entropy = 0.0<br/>samples = 1<br/>value = [1, 0]>, fillcolor="#e58139"] ;
28 -> 30 ;
31 [label=<x<SUB>1</SUB> &le; 859.5<br/>entropy = 0.958<br/>samples = 71<br/>value = [27, 44]>, fillcolor="#b2d9f5"] ;
27 -> 31 ;
32 [label=<x<SUB>2</SUB> &le; -0.043<br/>entropy = 0.964<br/>samples = 18<br/>value = [11, 7]>, fillcolor="#f6d1b7"] ;
31 -> 32 ;
33 [label=<entropy = 0.0<br/>samples = 4<br/>value = [4, 0]>, fillcolor="#e58139"] ;
32 -> 33 ;
34 [label=<entropy = 1.0<br/>samples = 14<br/>value = [7, 7]>, fillcolor="#ffffff"] ;
32 -> 34 ;
35 [label=<x<SUB>2</SUB> &le; -0.734<br/>entropy = 0.884<br/>samples = 53<br/>value = [16, 37]>, fillcolor="#8fc7f0"] ;
31 -> 35 ;
36 [label=<entropy = 0.0<br/>samples = 2<br/>value = [2, 0]>, fillcolor="#e58139"] ;
35 -> 36 ;
37 [label=<x<SUB>0</SUB> &le; 135.0<br/>entropy = 0.848<br/>samples = 51<br/>value = [14, 37]>, fillcolor="#84c2ef"] ;
35 -> 37 ;
38 [label=<entropy = 0.0<br/>samples = 7<br/>value = [0, 7]>, fillcolor="#399de5"] ;
37 -> 38 ;
39 [label=<entropy = 0.902<br/>samples = 44<br/>value = [14, 30]>, fillcolor="#95cbf1"] ;
37 -> 39 ;
40 [label=<x<SUB>2</SUB> &le; -1.194<br/>entropy = 0.997<br/>samples = 64<br/>value = [34, 30]>, fillcolor="#fcf0e8"] ;
22 -> 40 ;
41 [label=<entropy = 0.439<br/>samples = 11<br/>value = [10, 1]>, fillcolor="#e88e4d"] ;
40 -> 41 ;
42 [label=<x<SUB>1</SUB> &le; 962.0<br/>entropy = 0.994<br/>samples = 53<br/>value = [24, 29]>, fillcolor="#ddeefb"] ;
40 -> 42 ;
43 [label=<entropy = 0.932<br/>samples = 23<br/>value = [15, 8]>, fillcolor="#f3c4a3"] ;
42 -> 43 ;
44 [label=<x<SUB>0</SUB> &le; 754.5<br/>entropy = 0.881<br/>samples = 30<br/>value = [9, 21]>, fillcolor="#8ec7f0"] ;
42 -> 44 ;
45 [label=<x<SUB>1</SUB> &le; 972.0<br/>entropy = 0.966<br/>samples = 23<br/>value = [9, 14]>, fillcolor="#b8dcf6"] ;
44 -> 45 ;
46 [label=<entropy = 0.0<br/>samples = 5<br/>value = [0, 5]>, fillcolor="#399de5"] ;
45 -> 46 ;
47 [label=<entropy = 1.0<br/>samples = 18<br/>value = [9, 9]>, fillcolor="#ffffff"] ;
45 -> 47 ;
48 [label=<entropy = 0.0<br/>samples = 7<br/>value = [0, 7]>, fillcolor="#399de5"] ;
44 -> 48 ;
}